FANN_FLO_2.1
num_layers=3
learning_rate=0.700000
connection_rate=1.000000
network_type=0
learning_momentum=0.000000
training_algorithm=2
train_error_function=1
train_stop_function=0
cascade_output_change_fraction=0.010000
quickprop_decay=-0.000100
quickprop_mu=1.750000
rprop_increase_factor=1.200000
rprop_decrease_factor=0.500000
rprop_delta_min=0.000000
rprop_delta_max=50.000000
rprop_delta_zero=0.100000
cascade_output_stagnation_epochs=12
cascade_candidate_change_fraction=0.010000
cascade_candidate_stagnation_epochs=12
cascade_max_out_epochs=150
cascade_min_out_epochs=50
cascade_max_cand_epochs=150
cascade_min_cand_epochs=50
cascade_num_candidate_groups=2
bit_fail_limit=3.49999994039535522461e-01
cascade_candidate_limit=1.00000000000000000000e+03
cascade_weight_multiplier=4.00000005960464477539e-01
cascade_activation_functions_count=10
cascade_activation_functions=3 5 7 8 10 11 14 15 16 17 
cascade_activation_steepnesses_count=4
cascade_activation_steepnesses=2.50000000000000000000e-01 5.00000000000000000000e-01 7.50000000000000000000e-01 1.00000000000000000000e+00 
layer_sizes=5 10 4 
scale_included=0
neurons (num_inputs, activation_function, activation_steepness)=(0, 0, 0.00000000000000000000e+00) (0, 0, 0.00000000000000000000e+00) (0, 0, 0.00000000000000000000e+00) (0, 0, 0.00000000000000000000e+00) (0, 0, 0.00000000000000000000e+00) (5, 5, 5.00000000000000000000e-01) (5, 5, 5.00000000000000000000e-01) (5, 5, 5.00000000000000000000e-01) (5, 5, 5.00000000000000000000e-01) (5, 5, 5.00000000000000000000e-01) (5, 5, 5.00000000000000000000e-01) (5, 5, 5.00000000000000000000e-01) (5, 5, 5.00000000000000000000e-01) (5, 5, 5.00000000000000000000e-01) (0, 5, 0.00000000000000000000e+00) (10, 5, 5.00000000000000000000e-01) (10, 5, 5.00000000000000000000e-01) (10, 5, 5.00000000000000000000e-01) (0, 5, 0.00000000000000000000e+00) 
connections (connected_to_neuron, weight)=(0, 4.17254877090454101562e+00) (1, -5.39198207855224609375e+00) (2, 1.02789092063903808594e+00) (3, -1.53473830223083496094e+00) (4, 2.20075905323028564453e-01) (0, 1.01036376953125000000e+01) (1, 6.10334277153015136719e-01) (2, -6.14211368560791015625e+00) (3, -2.73353409767150878906e+00) (4, 5.92819035053253173828e-01) (0, -1.57873809814453125000e+02) (1, -1.83354258537292480469e+00) (2, 1.44177162647247314453e+00) (3, -5.82353258132934570312e+00) (4, 2.77187561988830566406e+00) (0, 1.65589344501495361328e+00) (1, -5.04515361785888671875e+00) (2, 1.46155452728271484375e+00) (3, 1.52831184864044189453e+00) (4, 1.07613229751586914062e+00) (0, 6.93476486206054687500e+01) (1, -4.27627182006835937500e+01) (2, 5.06522750854492187500e+01) (3, 3.23972582817077636719e+00) (4, -1.55055567622184753418e-01) (0, 1.16859474182128906250e+01) (1, 6.94393217563629150391e-02) (2, 8.37870121002197265625e+00) (3, 1.02021610736846923828e+00) (4, 3.49146842956542968750e-01) (0, -1.52111892700195312500e+01) (1, 6.13386201858520507812e+00) (2, 5.50250577926635742188e+00) (3, 1.46217083930969238281e+00) (4, 9.01642620563507080078e-01) (0, -2.55432453155517578125e+01) (1, 3.20937156677246093750e+01) (2, -4.31637191772460937500e+00) (3, -2.16696548461914062500e+01) (4, -6.76629590988159179688e+00) (0, 4.88480377197265625000e+01) (1, -7.10066127777099609375e+00) (2, -3.73820900917053222656e+00) (3, -3.08734744787216186523e-01) (4, -6.72400712966918945312e-01) (5, -1.16854248046875000000e+02) (6, 2.69961605072021484375e+01) (7, 2.72818927764892578125e+01) (8, 4.28762969970703125000e+01) (9, 1.95709934234619140625e+01) (10, -4.65377426147460937500e+00) (11, -4.16867828369140625000e+00) (12, 1.36983928680419921875e+01) (13, 4.83103599548339843750e+01) (14, -2.77693837881088256836e-01) (5, 1.25878501892089843750e+02) (6, -4.73857612609863281250e+01) (7, -2.41417999267578125000e+01) (8, 5.33484153747558593750e+01) (9, -1.24817390441894531250e+01) (10, -1.88282871246337890625e+01) (11, -1.43984401226043701172e+00) (12, 5.88671255111694335938e+00) (13, -4.93189620971679687500e+01) (14, -3.49914222955703735352e-01) (5, 3.41217575073242187500e+01) (6, 2.28040580749511718750e+01) (7, -1.89838848114013671875e+01) (8, -3.78389587402343750000e+01) (9, -5.26042222976684570312e+00) (10, -2.71353244781494140625e+01) (11, 4.96620476245880126953e-01) (12, -1.11633300781250000000e+01) (13, -4.32034606933593750000e+01) (14, -5.40025293827056884766e-01) 
