FANN_FLO_2.1
num_layers=3
learning_rate=0.700000
connection_rate=1.000000
network_type=0
learning_momentum=0.000000
training_algorithm=2
train_error_function=1
train_stop_function=0
cascade_output_change_fraction=0.010000
quickprop_decay=-0.000100
quickprop_mu=1.750000
rprop_increase_factor=1.200000
rprop_decrease_factor=0.500000
rprop_delta_min=0.000000
rprop_delta_max=50.000000
rprop_delta_zero=0.100000
cascade_output_stagnation_epochs=12
cascade_candidate_change_fraction=0.010000
cascade_candidate_stagnation_epochs=12
cascade_max_out_epochs=150
cascade_min_out_epochs=50
cascade_max_cand_epochs=150
cascade_min_cand_epochs=50
cascade_num_candidate_groups=2
bit_fail_limit=3.49999994039535522461e-01
cascade_candidate_limit=1.00000000000000000000e+03
cascade_weight_multiplier=4.00000005960464477539e-01
cascade_activation_functions_count=10
cascade_activation_functions=3 5 7 8 10 11 14 15 16 17 
cascade_activation_steepnesses_count=4
cascade_activation_steepnesses=2.50000000000000000000e-01 5.00000000000000000000e-01 7.50000000000000000000e-01 1.00000000000000000000e+00 
layer_sizes=28 10 5 
scale_included=0
neurons (num_inputs, activation_function, activation_steepness)=(0, 0, 0.00000000000000000000e+00) (0, 0, 0.00000000000000000000e+00) (0, 0, 0.00000000000000000000e+00) (0, 0, 0.00000000000000000000e+00) (0, 0, 0.00000000000000000000e+00) (0, 0, 0.00000000000000000000e+00) (0, 0, 0.00000000000000000000e+00) (0, 0, 0.00000000000000000000e+00) (0, 0, 0.00000000000000000000e+00) (0, 0, 0.00000000000000000000e+00) (0, 0, 0.00000000000000000000e+00) (0, 0, 0.00000000000000000000e+00) (0, 0, 0.00000000000000000000e+00) (0, 0, 0.00000000000000000000e+00) (0, 0, 0.00000000000000000000e+00) (0, 0, 0.00000000000000000000e+00) (0, 0, 0.00000000000000000000e+00) (0, 0, 0.00000000000000000000e+00) (0, 0, 0.00000000000000000000e+00) (0, 0, 0.00000000000000000000e+00) (0, 0, 0.00000000000000000000e+00) (0, 0, 0.00000000000000000000e+00) (0, 0, 0.00000000000000000000e+00) (0, 0, 0.00000000000000000000e+00) (0, 0, 0.00000000000000000000e+00) (0, 0, 0.00000000000000000000e+00) (0, 0, 0.00000000000000000000e+00) (0, 0, 0.00000000000000000000e+00) (28, 5, 5.00000000000000000000e-01) (28, 5, 5.00000000000000000000e-01) (28, 5, 5.00000000000000000000e-01) (28, 5, 5.00000000000000000000e-01) (28, 5, 5.00000000000000000000e-01) (28, 5, 5.00000000000000000000e-01) (28, 5, 5.00000000000000000000e-01) (28, 5, 5.00000000000000000000e-01) (28, 5, 5.00000000000000000000e-01) (0, 5, 0.00000000000000000000e+00) (10, 5, 5.00000000000000000000e-01) (10, 5, 5.00000000000000000000e-01) (10, 5, 5.00000000000000000000e-01) (10, 5, 5.00000000000000000000e-01) (0, 5, 0.00000000000000000000e+00) 
connections (connected_to_neuron, weight)=(0, 1.61904245615005493164e-01) (1, 5.84483034908771514893e-02) (2, -1.15634925663471221924e-01) (3, -2.95431208610534667969e+00) (4, -5.90796828269958496094e-01) (5, 2.55158519744873046875e+00) (6, -5.03186546266078948975e-02) (7, 1.02446877956390380859e+00) (8, 1.65417701005935668945e-01) (9, -1.04876813888549804688e+01) (10, 1.92434191703796386719e-01) (11, 6.88636541366577148438e+00) (12, 1.92777082324028015137e-01) (13, 3.64140510559082031250e-01) (14, 2.49994695186614990234e-01) (15, 3.28763663768768310547e-01) (16, 8.92310887575149536133e-02) (17, -4.02388274669647216797e-01) (18, 1.39557495713233947754e-01) (19, -2.27683281898498535156e+00) (20, -6.53819516301155090332e-02) (21, 4.40238088369369506836e-01) (22, 2.40261241793632507324e-01) (23, 2.23962470889091491699e-01) (24, -1.13717950880527496338e-01) (25, -9.31467354297637939453e-01) (26, -4.33711385726928710938e+00) (27, 2.37311035394668579102e-01) (0, 1.66618421673774719238e-01) (1, 6.84238970279693603516e-01) (2, 1.58376979827880859375e+00) (3, 8.96211147308349609375e+00) (4, -7.68998205661773681641e-01) (5, -7.47141790390014648438e+00) (6, 1.78379848599433898926e-01) (7, -2.40145277976989746094e+00) (8, 1.05970788002014160156e+00) (9, 9.53162574768066406250e+00) (10, -3.21207016706466674805e-01) (11, -1.31352493286132812500e+02) (12, -2.95439028739929199219e+00) (13, 1.32682276889681816101e-02) (14, 2.35989376902580261230e-01) (15, 3.03757824003696441650e-02) (16, 1.41696536540985107422e+00) (17, 1.28771138191223144531e+00) (18, 1.14543664455413818359e+00) (19, 3.48549056053161621094e+00) (20, -8.05819705128669738770e-02) (21, -1.26972079277038574219e-01) (22, -1.07539033889770507812e+00) (23, 8.68387594819068908691e-02) (24, 7.28218257427215576172e-01) (25, 2.74095535278320312500e+00) (26, 2.47393341064453125000e+02) (27, 1.50267079472541809082e-01) (0, -3.16891700029373168945e-01) (1, 2.24033191800117492676e-01) (2, -1.43559312820434570312e+00) (3, 2.39424872398376464844e+00) (4, -3.60084444284439086914e-01) (5, -9.04006779193878173828e-01) (6, -8.38639497756958007812e-01) (7, -7.30618953704833984375e-01) (8, -1.26239061355590820312e+00) (9, 1.69114029407501220703e+00) (10, -2.29394957423210144043e-01) (11, -7.90345728397369384766e-01) (12, 4.09172534942626953125e-01) (13, 4.58692535758018493652e-02) (14, -4.27781313657760620117e-01) (15, 2.37235873937606811523e-01) (16, 4.10743981599807739258e-01) (17, 8.37574660778045654297e-01) (18, -1.28684818744659423828e+00) (19, -3.62907409667968750000e-01) (20, -1.27323448657989501953e-01) (21, -6.42540305852890014648e-02) (22, 3.46312612295150756836e-01) (23, 9.91112962365150451660e-02) (24, -1.53876399993896484375e+00) (25, 9.58418846130371093750e-01) (26, 3.15816670656204223633e-01) (27, 2.78559684753417968750e-01) (0, 4.04416263103485107422e-01) (1, -9.12893176078796386719e-01) (2, -1.37796485424041748047e+00) (3, -3.62805862426757812500e+01) (4, 7.03124332427978515625e+00) (5, 2.07178649902343750000e+01) (6, 5.51812171936035156250e-01) (7, 2.66706333160400390625e+01) (8, 1.03075668215751647949e-01) (9, -3.94000740051269531250e+01) (10, 1.32093942165374755859e+00) (11, 5.94865684509277343750e+01) (12, 4.72285985946655273438e-01) (13, 9.80013847351074218750e-01) (14, 1.08038961887359619141e-01) (15, 1.58592569828033447266e+00) (16, -6.73736333847045898438e-01) (17, -1.69839072227478027344e+00) (18, 1.66919767856597900391e-01) (19, -9.05964565277099609375e+00) (20, -1.97030293941497802734e+00) (21, 1.05052196979522705078e+00) (22, 1.20357200503349304199e-01) (23, 1.01871514320373535156e+00) (24, 2.86956489086151123047e-01) (25, -9.08117675781250000000e+00) (26, -8.64591827392578125000e+01) (27, 1.21651157736778259277e-01) (0, 1.41208708286285400391e-01) (1, -3.22956502437591552734e-01) (2, -4.24845665693283081055e-01) (3, -1.82372391223907470703e+00) (4, -7.06762894988059997559e-02) (5, 3.88534426689147949219e+00) (6, 8.97208631038665771484e-01) (7, 4.15484046936035156250e+00) (8, -1.76952481269836425781e-01) (9, -1.71980309486389160156e+00) (10, 2.80766606330871582031e-01) (11, 9.50033092498779296875e+00) (12, 5.95228038728237152100e-02) (13, 1.12763619422912597656e+00) (14, 4.32426720857620239258e-01) (15, 1.01951920986175537109e+00) (16, 5.19564211368560791016e-01) (17, -1.83143711090087890625e+00) (18, 1.01901113986968994141e+00) (19, -1.25201153755187988281e+00) (20, 1.87905579805374145508e-01) (21, 1.72258949279785156250e+00) (22, 2.96178758144378662109e-01) (23, 9.52551960945129394531e-01) (24, 5.81524181365966796875e+00) (25, -2.11599707603454589844e+00) (26, -3.01612710952758789062e+00) (27, -1.64743304252624511719e-01) (0, 6.87627732753753662109e-01) (1, -6.28022700548171997070e-02) (2, 6.89269006252288818359e-02) (3, 1.29155957698822021484e+00) (4, 9.73693370819091796875e-01) (5, 1.68044364452362060547e+00) (6, 9.57821607589721679688e-01) (7, 2.29446029663085937500e+00) (8, 1.21012806892395019531e+00) (9, 2.23012638092041015625e+00) (10, -1.68248319625854492188e+00) (11, -8.39541137695312500000e+02) (12, -1.69376051425933837891e+00) (13, 9.71851050853729248047e-01) (14, 6.39648675918579101562e-01) (15, 1.06791210174560546875e+00) (16, 2.32747346162796020508e-01) (17, -2.19527184963226318359e-01) (18, 1.86099505424499511719e+00) (19, 3.97867822647094726562e+00) (20, -1.00417530536651611328e+00) (21, 1.27636218070983886719e+00) (22, -1.17802786827087402344e+00) (23, 2.03390789031982421875e+00) (24, 2.21047186851501464844e+00) (25, 2.32962548732757568359e-01) (26, 1.91721935272216796875e+01) (27, -2.05904617905616760254e-02) (0, 1.10399954020977020264e-01) (1, 3.01181226968765258789e-01) (2, -1.15168631076812744141e+00) (3, 3.86628580093383789062e+00) (4, -2.19436120986938476562e+00) (5, -7.03221797943115234375e-01) (6, -2.10660502314567565918e-01) (7, -1.52913764119148254395e-01) (8, 2.10900641977787017822e-02) (9, 2.12582516670227050781e+00) (10, -7.29672193527221679688e-01) (11, -7.59270172119140625000e+01) (12, 1.76769658923149108887e-01) (13, -5.29366582632064819336e-02) (14, 1.55564710497856140137e-01) (15, 2.41946190595626831055e-01) (16, -1.96197330951690673828e-01) (17, 7.19525516033172607422e-01) (18, -2.40413516759872436523e-01) (19, 3.22269618511199951172e-01) (20, 6.69717602431774139404e-03) (21, -2.12529420852661132812e-01) (22, 1.50643274188041687012e-01) (23, 3.79497744143009185791e-02) (24, -4.70133870840072631836e-01) (25, 9.07439112663269042969e-01) (26, 9.82671618461608886719e-01) (27, 1.21517106890678405762e-01) (0, 1.94189977645874023438e+00) (1, -2.21715593338012695312e+00) (2, -5.74944496154785156250e+00) (3, -1.95232272148132324219e+00) (4, 1.00964725017547607422e+00) (5, 6.96152257919311523438e+00) (6, 6.46663546562194824219e-01) (7, 7.61282730102539062500e+00) (8, 1.54887056350708007812e+00) (9, -5.51420497894287109375e+00) (10, 1.04742860794067382812e+00) (11, -1.55001192092895507812e+01) (12, 1.58909821510314941406e+00) (13, 1.01194751262664794922e+00) (14, 1.11576879024505615234e+00) (15, 4.07358169555664062500e+00) (16, -2.75500464439392089844e+00) (17, -5.19249296188354492188e+00) (18, 1.16474330425262451172e+00) (19, -5.70209264755249023438e+00) (20, 1.65728539228439331055e-01) (21, 8.75642240047454833984e-01) (22, 1.15872716903686523438e+00) (23, 4.93712186813354492188e-01) (24, 1.88398945331573486328e+00) (25, -2.79919648170471191406e+00) (26, -8.82968807220458984375e+00) (27, 9.83195304870605468750e-01) (0, -7.58749200031161308289e-03) (1, 6.08893215656280517578e-01) (2, 1.12224206924438476562e+01) (3, -1.72117996215820312500e+01) (4, -5.90281391143798828125e+00) (5, 5.17173480987548828125e+00) (6, 4.82820272445678710938e+00) (7, -1.71906605362892150879e-01) (8, -1.21465671062469482422e+00) (9, 3.27357828617095947266e-01) (10, 7.91946411132812500000e-01) (11, 2.17062042236328125000e+02) (12, -6.65343952178955078125e+00) (13, 8.50823223590850830078e-01) (14, 1.82180628180503845215e-01) (15, -1.80338871479034423828e+00) (16, 3.28938573598861694336e-01) (17, 1.08903980255126953125e+00) (18, 1.01587915420532226562e+00) (19, 3.91223430633544921875e+00) (20, -5.34778416156768798828e-01) (21, 1.99519252777099609375e+00) (22, -1.90681755542755126953e-01) (23, 1.93864560127258300781e+00) (24, 6.22753620147705078125e+00) (25, 2.60557144880294799805e-01) (26, 1.96866154670715332031e+00) (27, -1.99840694665908813477e-01) (28, 1.68877162933349609375e+01) (29, 3.97860832214355468750e+01) (30, 1.67742538452148437500e+01) (31, 1.70738201141357421875e+01) (32, 9.55457763671875000000e+02) (33, 7.14289367675781250000e+02) (34, 4.06110725402832031250e+01) (35, 9.49718704223632812500e+01) (36, 2.37682067871093750000e+02) (37, 1.55075483322143554688e+01) (28, 3.07898521423339843750e+00) (29, -1.19574785232543945312e+01) (30, 6.74155712127685546875e-01) (31, 2.75408792495727539062e+00) (32, 4.75125283002853393555e-01) (33, -3.35177755355834960938e+00) (34, -1.47904920578002929688e+00) (35, 2.65733528137207031250e+00) (36, -2.63349354267120361328e-01) (37, -4.63478714227676391602e-01) (28, -4.47227209806442260742e-01) (29, 1.13330475986003875732e-01) (30, 7.07334637641906738281e-01) (31, -2.44574755430221557617e-01) (32, 8.14362168312072753906e-02) (33, -3.57697457075119018555e-01) (34, 3.65980758666992187500e+01) (35, 1.07391154766082763672e+00) (36, -9.62258052825927734375e+00) (37, -1.52372941374778747559e-01) (28, 3.64471912384033203125e-01) (29, 3.31872969865798950195e-01) (30, 5.09852111339569091797e-01) (31, 1.49536743164062500000e+01) (32, 6.62127017974853515625e-01) (33, 5.50704145431518554688e+00) (34, -8.47326874732971191406e-01) (35, -3.98790191650390625000e+02) (36, -3.95686173439025878906e+00) (37, -3.21785181760787963867e-01) 
